-3
0
-1
5
0
26
-87
127
6
96
44
-15
55
-9
-3
-4
20
-28
15
-12
-5
13
37
-4
-2
1
-74
-1
4
4
-36
-24
-39
-62
-7
127
7
41
2
66
-66
3
15
4
-39
-2
1
0
0
9
-1
-127
-82
44
0
-17
-3
11
1
2
-2
-4
8
4
24
12
-1
22
35
3
-1
0
-21
1
120
-127
-82
-4
64
-12
20
-1
-4
17
2
-21
28
-8
8
1
-13
112
-1
0
0
-1
0
-127
25
37
0
-5
0
-1
-2
9
12
3
-7
20
2
3
0
-10
4
0
0
0
2
0
77
71
-127
9
-81
19
-23
43
23
-35
-1
-9
-16
-8
53
-1
-15
65
-1
-1
0
-106
-3
5
24
3
-3
-43
-4
-102
-85
-23
-104
11
-127
44
-2
-59
13
-21
-67
0
0
1
4
2
-16
14
3
0
14
-9
-1
10
-23
26
-1
23
0
2
-127
2
-25
-15
-1
0
0
2
1
12
20
-8
-1
1
127
-3
-19
-4
11
-1
-9
2
-2
-14
0
-6
32
0
0
0
0
0
21
-5
-42
2
23
17
9
0
7
-14
1
-100
-21
2
-127
0
-1
-28
1
-1
0
-63
-1
4
-2
21
-4
-36
3
0
14
-32
-36
2
127
49
-3
48
3
46
-32
-3
0
-1
-85
-1
4
-34
-43
4
-127
9
27
15
-37
50
1
-10
114
-16
118
-1
95
7
0
0
0
-1
0
-108
32
3
-3
-74
-9
6
-3
-8
-127
3
-64
47
-6
-34
2
32
-8
5
1
0
57
-2
-72
127
32
-19
-20
-26
-16
-5
-12
-1
2
20
-8
-18
-25
-2
90
-2
0
0
0
7
0
6
4
-6
-1
14
-127
-2
3
-4
12
1
-5
18
-5
-14
0
18
12
11
-2
1
127
-4
-10
-13
40
-4
-7
25
13
-10
33
29
0
81
8
1
24
2
-22
-42
0
0
0
0
0
-56
0
81
1
-21
-1
-2
0
1
-11
4
-16
14
-1
-11
0
-127
8
3
0
1
-23
0
14
-29
-26
1
-5
1
7
-15
6
9
-2
-4
14
2
-9
1
127
-21
7
-1
0
-127
-3
-26
25
-20
-7
-8
-78
4
-16
-18
-12
2
-62
-84
-4
-44
-6
-6
13
0
0
0
-1
-1
29
28
-8
-3
-13
-9
1
-1
1
16
0
14
37
-5
-11
-2
-127
10
1
-1
0
-12
-3
117
127
8
14
-84
53
14
10
25
101
6
-8
-59
5
18
-5
-21
-55
0
0
-1
6
-1
-127
47
-76
-7
84
-8
-13
-8
9
-22
0
-61
56
-2
-48
-3
7
8
2
-1
-1
56
-4
32
1
-41
-4
52
10
6
0
-34
24
-1
127
17
-1
123
-4
69
-4
6
-1
0
15
0
-127
121
-1
-8
43
9
12
29
-38
21
-5
-5
-70
-11
3
1
-6
9
1
0
0
34
-2
3
-2
-54
9
-78
27
15
-7
6
-117
3
-127
-17
0
-109
4
42
-45
1
-2
0
-5
2
58
-118
62
5
50
92
4
16
-9
86
0
-9
-18
3
24
4
127
65
2
0
1
1
-1
-66
-127
-97
9
17
-29
-26
7
31
-30
-3
18
7
21
-30
4
86
-5
3
0
0
-10
0
19
127
57
16
70
1
1
15
20
20
2
35
26
-16
14
1
32
12
-1
2
-1
-13
-1
10
-1
127
11
-42
-57
-67
-63
122
27
0
13
30
9
-12
-7
2
-3
0
1
0
-27
1
-127
13
31
-9
45
-5
12
-1
10
-68
-1
70
28
-6
29
-1
40
13
1
0
0
-4
0
-127
-36
-31
5
-2
5
-2
9
-1
17
-1
7
-18
10
17
-1
16
9
2
1
1
-127
-1
-14
-20
1
-4
-20
25
4
4
8
10
-2
13
-14
1
-3
2
23
-15
