-17
25
63
-37
61
127
-19
31
-127
-58
-14
18
-3
64
45
-28
-5
21
-70
-21
-30
-46
-89
-45
22
-62
5
-5
96
-60
26
2
-55
-43
-105
-93
-9
-4
-71
20
25
-88
61
-47
-23
-3
-33
-40
120
-127
31
-54
-26
16
-18
81
47
-28
-46
86
-59
49
1
30
-33
-9
1
-112
57
-35
-17
63
-48
75
-45
-36
-48
-4
27
-62
-112
-4
26
-81
-7
127
-63
53
21
-6
-3
33
9
-62
26
18
-51
11
127
-3
66
22
5
-37
-26
12
-12
-23
14
-9
-21
7
-17
-15
16
-35
8
-26
-4
-14
0
-20
42
-38
-9
0
11
-6
127
34
29
-78
-5
-43
-117
53
-7
40
35
-18
36
13
-19
50
2
-1
-11
29
13
-13
46
25
-8
-48
-27
52
-3
19
12
-9
-57
2
-13
-52
44
-17
-2
17
-14
-33
29
60
21
83
23
-77
-51
3
25
-127
6
51
41
33
-16
-11
-24
80
16
41
4
-16
31
16
39
21
11
-25
-22
-7
-78
-126
12
79
-7
2
78
-39
-2
8
-47
25
1
-53
57
-13
-102
-67
-25
-25
12
5
23
7
-20
-16
19
-58
67
-48
-28
5
8
4
-14
30
37
-19
18
18
44
-111
14
127
-36
-58
-24
78
-86
-20
-29
12
-51
3
-26
-4
23
-10
47
-31
-5
-13
48
-37
-39
-15
41
-30
-36
-44
4
-22
-118
53
3
-127
-3
1
18
-4
19
30
29
-47
8
-20
31
10
11
40
4
22
30
-4
-127
2
-28
-33
53
-11
-100
51
-24
27
7
-19
22
46
24
28
36
5
-48
74
-15
59
-48
11
15
-56
8
5
-30
-41
14
6
43
-59
2
-75
99
-84
-13
112
19
37
25
-45
-10
20
-44
13
-27
22
-127
34
4
0
-52
47
-36
11
-5
37
2
-5
15
-10
32
-16
-8
22
22
-19
-83
29
-1
30
23
-49
7
1
-5
-9
11
0
-127
-7
7
-10
-10
-5
13
1
61
-34
71
-107
-7
-84
6
21
35
-72
60
-52
-8
10
58
-5
-24
-78
40
-46
-40
11
-127
19
88
-53
73
3
-25
-42
19
-17
-22
21
-56
-39
83
-84
2
9
-29
33
-11
12
25
-37
-6
1
-74
-30
-11
-100
-127
41
17
18
33
30
-2
-18
17
35
105
-3
0
0
0
0
0
0
0
0
0
0
0
0
0
0
0
0
0
0
0
0
0
0
0
0
0
0
0
0
0
0
0
0
-1
-22
29
0
10
-5
28
-1
-31
-15
-22
23
-30
-35
-17
-4
8
-79
6
-16
-37
14
16
24
-126
-21
36
-84
-15
-5
53
19
-63
-13
11
-38
37
-26
-87
22
-6
-19
27
-5
35
-19
40
51
-33
-16
48
-16
-18
21
-6
85
-127
-30
-24
45
-28
26
12
-1
-10
12
43
6
11
-86
-12
5
-62
6
1
19
-33
-47
24
16
-83
-64
19
-124
-16
78
-54
-2
33
-35
27
-85
-1
-23
127
-14
-37
16
43
-95
24
-84
52
-14
-36
-48
69
-4
-27
-20
6
18
-25
-62
-21
-45
-7
1
20
-15
-20
22
47
-91
-19
53
127
11
36
0
18
-25
0
-4
65
1
127
75
-24
7
-26
-8
-56
-2
-6
-1
-13
-2
-13
6
5
5
17
-2
0
14
-1
26
13
35
-16
12
8
-10
10
18
15
11
8
-11
-12
-27
94
13
2
-10
76
-127
10
-55
-14
-61
-87
-7
57
-26
-2
5
-21
-9
38
-17
-38
-29
121
-23
127
-74
105
-48
111
-115
-79
100
63
-13
-15
21
125
-33
-21
-8
-35
-37
-40
7
98
60
1
-16
57
-94
-53
24
63
-10
65
-73
127
-72
68
31
-28
-70
15
-30
-94
16
4
48
28
7
0
-20
-25
-30
53
19
-117
5
-38
-12
-41
-12
7
43
37
5
127
-10
-45
-58
-22
-21
-28
7
15
13
-64
-33
25
-1
-34
39
22
-51
-38
-14
49
-48
-7
1
85
-66
54
14
115
3
30
-4
24
9
-45
-16
126
-39
-41
-48
-26
18
18
-21
-6
-2
64
8
-12
-6
3
-1
-3
-38
-1
24
-30
19
0
-1
-70
-41
20
-10
47
-51
53
-4
-4
11
16
-28
32
-8
-127
-9
3
9
41
1
31
-26
-8
-28
-7
-13
-103
-46
-23
-28
-11
-30
37
14
17
-77
-28
-24
5
15
-20
-16
20
38
-127
3
-19
-12
-16
112
-28
-11
6
-5
-6
-2
-27
14
-27
-21
34
-24
-14
-16
6
-35
-59
-33
-10
-127
-33
90
-42
53
-12
12
9
14
-46
7
18
17
-70
-47
24
102
-29
83
10
66
-37
19
-21
-9
-47
-26
-63
32
-21
11
86
-69
52
-11
-31
-45
-26
3
-45
-35
41
-23
34
27
-60
-89
28
-127
5
23
-30
-5
14
-24
1
-59
-21
1
101
3
39
-46
-19
-27
-113
3
-46
-21
-25
64
-123
-23
33
-47
-34
46
8
6
-3
21
0
35
-34
68
-51
59
47
127
7
28
-73
-5
-9
17
-35
2
4
-127
-103
71
-66
-89
94
3
-43
-8
23
38
-44
15
-4
24
-12
39
-20
-84
-47
-64
46
63
66
49
-1
-3
-23
-22
94
-16
-61
-30
0
-3
-127
-16
-10
-71
-56
-3
-4
19
-38
43
8
-4
39
27
-19
-60
5
66
50
-76
-22
24
54
15
-23
13
82
-39
71
23
-5
-2
30
-50
3
-23
69
22
-3
-4
-27
23
-17
-11
32
6
45
-19
6
-53
-8
-17
-14
85
127
10
10
-58
-11
-37
47
-20
18
6
-5
15
52
-19
46
-14
7
-12
-127
30
-5
-123
-23
68
17
34
26
1
24
20
-15
39
4
-11
0
41
-17
-1
-4
-35
37
13
-8
42
1
-11
126
-14
-13
2
11
-34
-26
16
-9
-11
-25
-28
84
8
35
-24
1
-18
-16
-127
39
63
2
-54
-24
26
66
3
-49
98
11
-19
-34
16
-127
-82
-12
6
-55
-2
38
-10
-88
41
10
-25
15
-10
-47
-8
-2
56
-5
2
-20
4
29
-43
-127
2
-55
-98
29
-66
12
-46
-17
50
-26
-7
1
-29
-80
32
34
-7
-99
34
10
-60
19
66
38
-2
-79
6
11
-42
127
17
-38
-18
-10
-45
-3
-17
-22
-14
-1
18
11
-50
9
-55
-33
-33
-3
62
-33
-23
-31
-21
-44
-22
78
7
-33
37
-52
42
24
-58
-72
2
95
-127
6
-24
33
15
16
-80
-60
17
-14
16
-3
9
73
-35
-41
-1
24
16
40
7
6
-23
66
-101
0
17
20
90
-15
-9
-20
57
-55
108
92
-44
-46
13
7
-30
-2
-51
-73
-81
76
20
22
25
-16
-61
-30
-42
127
12
-37
8
-32
-69
83
-45
-63
-14
-67
-48
-51
-56
22
4
-11
22
0
7
1
-10
-52
127
6
98
-16
-9
-90
-35
2
16
66
24
-8
-34
-4
-5
-12
0
-42
-84
-17
41
-127
-15
38
7
-37
48
17
-35
0
-29
10
4
-6
14
93
-8
-32
0
-8
-59
-27
-47
7
-5
6
-3
-12
10
33
-8
31
-1
-33
4
4
1
127
1
8
-4
3
-10
-3
6
-8
6
30
9
-10
0
2
3
-4
10
-1
-5
-26
-5
32
-18
47
-72
-43
57
-11
-41
45
0
-19
-19
56
-37
-3
6
-21
-7
-127
-13
52
0
6
-6
-22
-19
-4
-18
-121
19
-94
0
61
45
-38
5
-13
16
35
-13
36
17
2
-43
-65
-82
-1
3
-77
127
-5
54
28
-53
-7
10
-14
20
50
0
-23
-32
-7
31
12
-25
-111
60
-7
37
-102
4
-26
-21
18
14
-71
3
7
-19
-113
-8
-68
-3
127
-30
24
16
-10
-21
7
-70
-26
59
-6
-11
5
-6
-127
-24
-27
-26
9
-22
-50
-3
-26
85
8
-5
0
7
18
-50
27
5
-42
-14
-11
-31
-22
-3
-22
-62
21
20
14
-120
-91
-79
-64
94
-83
106
-70
-26
-115
5
-4
-53
-127
70
18
27
26
1
-28
-18
35
-24
-19
-34
-9
-6
36
55
0
-121
0
-1
-46
0
127
-81
-34
-8
-22
-25
1
0
-18
53
-1
3
-32
-8
-3
27
-17
20
55
0
-39
-5
-51
-16
-28
36
-6
-12
9
-127
103
-79
-2
-17
-18
-60
36
17
22
17
-4
25
-86
18
5
-117
-24
-34
-22
44
31
24
12
2
-8
19
67
15
-8
-42
-9
-1
-8
-1
108
-6
-19
48
-127
9
-19
-35
21
-81
0
-23
4
-24
-9
29
2
22
7
35
19
48
13
-27
-3
52
-15
5
5
-30
15
-25
77
-80
-17
43
40
-24
14
-10
-32
67
15
-13
-127
22
36
-7
9
-39
39
-13
-8
-30
-84
-20
-56
-11
-8
29
2
-11
-22
-3
9
-39
-19
15
34
-31
-24
-9
-9
49
-69
-44
0
-36
41
-14
20
-2
20
-6
4
-12
-3
-8
0
-127
-12
13
-2
0
11
7
-59
-5
-48
0
48
-1
-25
-7
5
11
6
-22
10
29
-9
7
9
-1
-128
8
10
-2
-6
4
-7
-5
-127
-29
30
27
-60
-103
-25
32
14
-2
-35
-21
-59
52
-16
14
7
60
92
61
-39
45
17
47
-34
16
-8
-62
47
-29
-35
-46
-29
12
-18
-5
-16
9
7
22
-2
-5
-4
6
-25
-9
-4
14
-127
-7
3
-14
-11
22
19
26
-2
-7
21
-19
3
-40
26
15
24
-32
11
25
20
-2
59
-19
17
-52
6
21
10
-30
-12
16
48
-6
-26
15
-17
-127
-10
-22
62
-60
-30
59
29
17
26
-19
43
-32
-98
4
14
-85
-9
37
-72
107
-15
-127
8
-76
64
-121
126
-111
74
-104
-68
100
-65
-98
-107
-105
77
-86
117
0
37
-19
-15
-26
-42
-36
12
-2
-49
34
-13
-5
41
14
22
34
7
-9
-48
33
40
-126
-3
21
14
46
1
-9
-17
27
-15
10
10
2
102
69
1
59
64
46
-38
42
-68
24
54
37
-113
-21
-9
68
99
-45
41
-61
45
-116
-127
6
9
-55
-55
-110
22
-115
-78
21
-10
-14
0
-84
-18
-65
-38
-68
-23
127
-31
-54
-33
-12
-33
-14
-49
-2
-24
-25
114
2
26
56
1
-45
-34
-62
-21
-12
-36
1
-14
-10
21
5
-36
32
-3
42
10
74
-41
-19
-127
-5
4
-11
-55
-76
25
-5
-12
45
2
-2
-13
-34
23
-19
-1
-72
16
11
55
-23
44
108
-126
-127
37
56
-16
-1
-3
35
-36
-52
2
26
-21
-52
-30
-19
15
24
-5
35
72
-116
87
-48
-5
50
26
19
-16
2
-69
-61
52
45
-63
-30
-22
-127
9
67
3
7
12
-6
24
-36
22
-26
-32
0
32
74
-59
9
20
-26
-61
11
7
-9
