3
2
1
-4
8
12
10
12
-6
-9
23
24
-21
-127
0
5
-21
18
-24
4
-5
-8
-22
-1
-25
-12
1
36
-33
-9
-8
6
-58
-67
-13
-5
-10
-12
29
19
-24
-16
-8
28
-13
28
25
25
-3
-65
-3
4
-2
8
2
-15
45
-9
35
35
-9
24
7
-9
-7
11
26
-19
4
24
-7
16
-72
10
-1
-26
-12
0
0
-17
17
-25
-42
3
5
-4
-4
-19
7
-7
-12
10
-10
-17
0
-58
2
8
20
-5
-77
18
-3
-8
35
-56
-3
51
15
-14
59
0
17
5
2
-38
127
5
2
0
2
-12
70
-5
-14
-5
-14
15
-24
39
72
-47
4
56
-12
52
24
32
-13
-61
-54
9
0
-99
50
-97
-73
10
6
-15
-7
-48
22
-32
-26
32
-89
-47
7
-16
5
15
-20
-10
-74
64
-17
-4
127
28
5
-28
49
-6
79
2
-24
26
5
45
-41
-3
9
9
4
-43
-39
-17
-44
-24
-51
47
-16
6
3
-1
1
-6
-53
1
-1
-1
-25
-12
-5
-2
0
2
-4
1
-9
73
-14
14
-9
0
-10
5
49
5
7
-1
-40
2
-5
-2
-37
47
-42
1
39
9
1
-23
-78
-43
1
-32
-21
35
127
-3
-43
42
33
-79
4
-21
0
1
6
10
65
4
1
-3
3
26
-51
6
34
6
1
11
8
-10
-3
77
20
-49
0
-2
-2
-14
16
-16
44
46
61
-4
-38
46
-3
-18
-2
6
3
-5
-4
-51
15
-1
-15
37
-4
-19
4
35
3
27
-24
-92
64
-88
-15
50
21
26
-10
1
2
-127
-28
11
-1
6
56
-62
-15
8
-8
-33
1
7
24
8
42
13
-32
-21
-123
-68
-37
-7
0
12
36
-44
35
21
16
-8
33
4
-3
12
-78
0
-2
9
-34
-18
-21
-8
-17
-55
3
-29
-19
18
43
-4
-10
35
23
2
55
73
26
3
-41
-19
55
0
58
6
-7
-59
13
16
-40
-10
26
-37
15
37
25
-13
4
5
-14
-8
6
-6
-89
-108
0
-5
0
22
9
25
-16
-2
14
-6
40
4
9
-10
-12
-21
-13
-8
3
16
5
-6
29
-24
-60
-11
5
-1
-24
-18
-18
-30
-4
8
127
-37
-18
7
18
12
-12
12
-48
7
15
7
-7
-11
34
9
-13
4
14
0
-3
0
21
-2
8
-3
4
3
-3
21
4
4
0
-6
0
0
-7
0
3
-11
-6
3
8
1
5
-2
-1
-14
-15
-4
-6
3
1
27
61
6
-13
4
-2
125
9
88
-1
6
68
12
-27
1
11
-127
-20
10
-21
4
-12
2
-1
6
21
-3
-1
8
-41
-11
61
-22
22
-7
-29
5
-3
-5
56
28
60
39
0
-27
8
56
7
16
-108
-59
52
11
59
-32
39
-7
-91
-44
19
8
-26
40
-119
0
-13
-103
29
-32
3
-1
11
-127
24
86
12
21
12
-28
39
-14
50
-4
-7
-13
20
13
0
5
-10
37
34
-37
75
51
-9
14
-58
-5
-51
3
32
38
127
34
6
-6
0
-12
-46
14
-41
-12
-22
-2
1
-3
11
-16
113
-24
44
1
70
22
19
28
12
62
9
9
7
-40
-36
-22
-18
4
-19
19
-26
-74
-41
-18
63
14
-50
31
-50
-5
16
35
-18
-21
59
0
-23
19
